digraph Tree {
node [shape=box] ;
0 [label="compile_date <= 1313388032.0\nentropy = 1.0\nsamples = 99\nvalue = [49, 50]"] ;
1 [label="sec_rawsize_tls <= 256.0\nentropy = 0.151\nsamples = 46\nvalue = [45, 1]"] ;
0 -> 1 [labeldistance=2.5, labelangle=45, headlabel="True"] ;
2 [label="entropy = 0.0\nsamples = 45\nvalue = [45, 0]"] ;
1 -> 2 ;
3 [label="entropy = 0.0\nsamples = 1\nvalue = [0, 1]"] ;
1 -> 3 ;
4 [label="debug_size <= 14.0\nentropy = 0.386\nsamples = 53\nvalue = [4, 49]"] ;
0 -> 4 [labeldistance=2.5, labelangle=-45, headlabel="False"] ;
5 [label="sec_entropy_data <= 2.017\nentropy = 1.0\nsamples = 8\nvalue = [4, 4]"] ;
4 -> 5 ;
6 [label="entropy = 0.0\nsamples = 3\nvalue = [0, 3]"] ;
5 -> 6 ;
7 [label="entropy = 0.722\nsamples = 5\nvalue = [4, 1]"] ;
5 -> 7 ;
8 [label="entropy = 0.0\nsamples = 45\nvalue = [0, 45]"] ;
4 -> 8 ;
}